Language model created by QuickLM on Wed Aug 28 12:27:13 EDT 2013
Copyright (c) 1996-2010 Carnegie Mellon University and Alexander I. Rudnicky

The model is in standard ARPA format, designed by Doug Paul while he was at MITRE.

The code that was used to produce this language model is available in Open Source.
Please visit http://www.speech.cs.cmu.edu/tools/ for more information

The (fixed) discount mass is 0.5. The backoffs are computed using the ratio method.
This model based on a corpus of 210 sentences and 211 words

\data\
ngram 1=211
ngram 2=418
ngram 3=209

\1-grams:
-0.7782 </s> -0.3010
-0.7782 <s> -0.2218
-3.1004 AFTER -0.2218
-3.1004 AFTER-LINE -0.2218
-3.1004 AGAIN -0.2218
-3.1004 ALPHA -0.2218
-3.1004 AMPERSAND -0.2218
-3.1004 AROUND -0.2218
-3.1004 AT -0.2218
-3.1004 AWK -0.2218
-3.1004 BACK -0.2218
-3.1004 BACK-WORD -0.2218
-3.1004 BACKSPACE -0.2218
-3.1004 BANG -0.2218
-3.1004 BIG-WORD -0.2218
-3.1004 BRACES -0.2218
-3.1004 BRACKETS -0.2218
-3.1004 BRAVO -0.2218
-3.1004 BUFFER -0.2218
-3.1004 C-D -0.2218
-3.1004 CAP-ALPHA -0.2218
-3.1004 CAP-BRAVO -0.2218
-3.1004 CAP-CHARLIE -0.2218
-3.1004 CAP-DELTA -0.2218
-3.1004 CAP-ECHO -0.2218
-3.1004 CAP-FOXTROT -0.2218
-3.1004 CAP-GOLF -0.2218
-3.1004 CAP-HOTEL -0.2218
-3.1004 CAP-INDIA -0.2218
-3.1004 CAP-JULIETTE -0.2218
-3.1004 CAP-KILO -0.2218
-3.1004 CAP-LIMA -0.2218
-3.1004 CAP-MIKE -0.2218
-3.1004 CAP-NOVEMBER -0.2218
-3.1004 CAP-OSCAR -0.2218
-3.1004 CAP-PAPA -0.2218
-3.1004 CAP-QUEBEC -0.2218
-3.1004 CAP-ROMEO -0.2218
-3.1004 CAP-SIERRA -0.2218
-3.1004 CAP-TANGO -0.2218
-3.1004 CAP-UNIFORM -0.2218
-3.1004 CAP-VICTOR -0.2218
-3.1004 CAP-WHISKEY -0.2218
-3.1004 CAP-X-RAY -0.2218
-3.1004 CAP-YANKEE -0.2218
-3.1004 CAP-ZULU -0.2218
-3.1004 CAPS-LOCK -0.2218
-3.1004 CARET -0.2218
-3.1004 CHANGE -0.2218
-3.1004 CHARLIE -0.2218
-3.1004 CLOSE-BUFFER -0.2218
-3.1004 COLIN -0.2218
-3.1004 COLUMN -0.2218
-3.1004 COMMA -0.2218
-3.1004 COMMAND -0.2218
-3.1004 DATE -0.2218
-3.1004 DELETE -0.2218
-3.1004 DELETE-CHAR -0.2218
-3.1004 DELETE-LINE -0.2218
-3.1004 DELTA -0.2218
-3.1004 DICTATE -0.2218
-3.1004 DOLLAR -0.2218
-3.1004 DONE -0.2218
-3.1004 DOT -0.2218
-3.1004 DOWN -0.2218
-3.1004 DOWN-LINE -0.2218
-3.1004 ECHO -0.2218
-3.1004 EDIT -0.2218
-3.1004 EDITOR -0.2218
-3.1004 EIGHT -0.2218
-3.1004 END -0.2218
-3.1004 END-OF-FILE -0.2218
-3.1004 END-OF-LINE -0.2218
-3.1004 END-OF-NEXT-SECTION -0.2218
-3.1004 END-OF-PREVIOUS-SECTION -0.2218
-3.1004 END-PARAGRAPH -0.2218
-3.1004 END-SENTENCE -0.2218
-3.1004 END-WORD -0.2218
-3.1004 ESCAPE -0.2218
-3.1004 FILE -0.2218
-3.1004 FIND -0.2218
-3.1004 FIND-AND-REPLACE -0.2218
-3.1004 FIND-REVERSED -0.2218
-3.1004 FIRST-CHARACTER -0.2218
-3.1004 FIVE -0.2218
-3.1004 FORCE-EDIT -0.2218
-3.1004 FORCE-QUIT -0.2218
-3.1004 FORCE-WRITE -0.2218
-3.1004 FORCE-WRITE-QUIT -0.2218
-3.1004 FORMAT -0.2218
-3.1004 FORMAT-LINE -0.2218
-3.1004 FOUR -0.2218
-3.1004 FOXTROT -0.2218
-3.1004 GLOBALLY -0.2218
-3.1004 GOLF -0.2218
-3.1004 GREP -0.2218
-3.1004 H-TOP -0.2218
-3.1004 HASH -0.2218
-3.1004 HIGHEST -0.2218
-3.1004 HOTEL -0.2218
-3.1004 INDENT -0.2218
-3.1004 INDENT-LINE -0.2218
-3.1004 INDIA -0.2218
-3.1004 INNER -0.2218
-2.7993 INSERT -0.2218
-3.1004 INSERT-BEFORE-LINE -0.2218
-3.1004 JOIN -0.2218
-3.1004 JULIETTE -0.2218
-3.1004 JUMP-TO-MARK -0.2218
-3.1004 KILO -0.2218
-3.1004 L-S -0.2218
-3.1004 LEFT -0.2218
-3.1004 LEFT-BRACE -0.2218
-3.1004 LEFT-BRACKET -0.2218
-3.1004 LEFT-PAREN -0.2218
-3.1004 LESS -0.2218
-3.1004 LIMA -0.2218
-3.1004 LINE -0.2218
-3.1004 LIST-BUFFERS -0.2218
-3.1004 LOWEST -0.2218
-3.1004 MAN -0.2218
-3.1004 MATCHING -0.2218
-3.1004 MIDDLE -0.2218
-3.1004 MIKE -0.2218
-3.1004 NEXT -0.2218
-3.1004 NINE -0.2218
-3.1004 NOVEMBER -0.2218
-3.1004 ONE -0.2218
-3.1004 OPEN-ABOVE -0.2218
-3.1004 OPEN-BELOW -0.2218
-3.1004 OSCAR -0.2218
-3.1004 P-S -0.2218
-3.1004 P-W-D -0.2218
-3.1004 PAPA -0.2218
-3.1004 PARENS -0.2218
-3.1004 PASTE -0.2218
-3.1004 PERCENT -0.2218
-3.1004 PIPE -0.2218
-3.1004 PLAY-AGAIN -0.2218
-3.1004 PLAY-MACRO -0.2218
-3.1004 PREVIOUS -0.2218
-3.1004 QUEBEC -0.2218
-3.1004 QUIT -0.2218
-3.1004 RECORD-MACRO -0.2218
-3.1004 REDO -0.2218
-3.1004 REPEATE -0.2218
-3.1004 RETURN -0.2218
-3.1004 RIGHT -0.2218
-3.1004 RIGHT-BRACE -0.2218
-3.1004 RIGHT-BRACKET -0.2218
-3.1004 RIGHT-PAREN -0.2218
-3.1004 ROMEO -0.2218
-3.1004 SCROLL-BOTTOM -0.2218
-3.1004 SCROLL-END -0.2218
-3.1004 SCROLL-START -0.2218
-3.1004 SCROLL-TOP -0.2218
-3.1004 SEARCH -0.2218
-3.1004 SEARCH-REVERSED -0.2218
-3.1004 SED -0.2218
-3.1004 SELECT -0.2218
-3.1004 SELECT-BLOCK -0.2218
-3.1004 SEMI-COLIN -0.2218
-3.1004 SEVEN -0.2218
-3.1004 SHELL -0.2218
-3.1004 SIERRA -0.2218
-3.1004 SIX -0.2218
-3.1004 SPACE -0.2218
-3.1004 STAR -0.2218
-3.1004 START-OF-FILE -0.2218
-3.1004 START-OF-LINE -0.2218
-3.1004 START-OF-NEXT-SECTION -0.2218
-3.1004 START-OF-PREVIOUS-SECTION -0.2218
-3.1004 START-PARAGRAPH -0.2218
-3.1004 START-SENTENCE -0.2218
-3.1004 STOP-RECORDING -0.2218
-3.1004 STOP-V-C-S -0.2218
-3.1004 TACK -0.2218
-3.1004 TANGO -0.2218
-3.1004 THREE -0.2218
-3.1004 TILDA -0.2218
-3.1004 TILL -0.2218
-3.1004 TILL-REVERSED -0.2218
-3.1004 TOGGLE-CASE -0.2218
-3.1004 TOP -0.2218
-3.1004 TOUCH -0.2218
-3.1004 TRIM -0.2218
-3.1004 TWO -0.2218
-3.1004 UNDERSCORE -0.2218
-3.1004 UNDO -0.2218
-3.1004 UNDO-LINE -0.2218
-3.1004 UNIFORM -0.2218
-3.1004 UNINDENT -0.2218
-3.1004 UNINDENT-LINE -0.2218
-3.1004 UP -0.2218
-3.1004 UP-LINE -0.2218
-3.1004 V-C-S -0.2218
-3.1004 VICTOR -0.2218
-3.1004 VISUAL -0.2218
-3.1004 VISUAL-BLOCK -0.2218
-3.1004 WHISKEY -0.2218
-3.1004 WITH -0.2218
-3.1004 WORD -0.2218
-3.1004 WRITE -0.2218
-3.1004 WRITE-QUIT -0.2218
-3.1004 X-RAY -0.2218
-3.1004 YANK -0.2218
-3.1004 YANK-LINE -0.2218
-3.1004 YANKEE -0.2218
-3.1004 YEP -0.2218
-3.1004 ZERO -0.2218
-3.1004 ZULU -0.2218

\2-grams:
-2.6232 <s> AFTER 0.0000
-2.6232 <s> AFTER-LINE 0.0000
-2.6232 <s> AGAIN 0.0000
-2.6232 <s> ALPHA 0.0000
-2.6232 <s> AMPERSAND 0.0000
-2.6232 <s> AROUND 0.0000
-2.6232 <s> AT 0.0000
-2.6232 <s> AWK 0.0000
-2.6232 <s> BACK 0.0000
-2.6232 <s> BACK-WORD 0.0000
-2.6232 <s> BACKSPACE 0.0000
-2.6232 <s> BANG 0.0000
-2.6232 <s> BIG-WORD 0.0000
-2.6232 <s> BRACES 0.0000
-2.6232 <s> BRACKETS 0.0000
-2.6232 <s> BRAVO 0.0000
-2.6232 <s> BUFFER 0.0000
-2.6232 <s> C-D 0.0000
-2.6232 <s> CAP-ALPHA 0.0000
-2.6232 <s> CAP-BRAVO 0.0000
-2.6232 <s> CAP-CHARLIE 0.0000
-2.6232 <s> CAP-DELTA 0.0000
-2.6232 <s> CAP-ECHO 0.0000
-2.6232 <s> CAP-FOXTROT 0.0000
-2.6232 <s> CAP-GOLF 0.0000
-2.6232 <s> CAP-HOTEL 0.0000
-2.6232 <s> CAP-INDIA 0.0000
-2.6232 <s> CAP-JULIETTE 0.0000
-2.6232 <s> CAP-KILO 0.0000
-2.6232 <s> CAP-LIMA 0.0000
-2.6232 <s> CAP-MIKE 0.0000
-2.6232 <s> CAP-NOVEMBER 0.0000
-2.6232 <s> CAP-OSCAR 0.0000
-2.6232 <s> CAP-PAPA 0.0000
-2.6232 <s> CAP-QUEBEC 0.0000
-2.6232 <s> CAP-ROMEO 0.0000
-2.6232 <s> CAP-SIERRA 0.0000
-2.6232 <s> CAP-TANGO 0.0000
-2.6232 <s> CAP-UNIFORM 0.0000
-2.6232 <s> CAP-VICTOR 0.0000
-2.6232 <s> CAP-WHISKEY 0.0000
-2.6232 <s> CAP-X-RAY 0.0000
-2.6232 <s> CAP-YANKEE 0.0000
-2.6232 <s> CAP-ZULU 0.0000
-2.6232 <s> CAPS-LOCK 0.0000
-2.6232 <s> CARET 0.0000
-2.6232 <s> CHANGE 0.0000
-2.6232 <s> CHARLIE 0.0000
-2.6232 <s> CLOSE-BUFFER 0.0000
-2.6232 <s> COLIN 0.0000
-2.6232 <s> COLUMN 0.0000
-2.6232 <s> COMMA 0.0000
-2.6232 <s> COMMAND 0.0000
-2.6232 <s> DATE 0.0000
-2.6232 <s> DELETE 0.0000
-2.6232 <s> DELETE-CHAR 0.0000
-2.6232 <s> DELETE-LINE 0.0000
-2.6232 <s> DELTA 0.0000
-2.6232 <s> DICTATE 0.0000
-2.6232 <s> DOLLAR 0.0000
-2.6232 <s> DONE 0.0000
-2.6232 <s> DOT 0.0000
-2.6232 <s> DOWN 0.0000
-2.6232 <s> DOWN-LINE 0.0000
-2.6232 <s> ECHO 0.0000
-2.6232 <s> EDIT 0.0000
-2.6232 <s> EDITOR 0.0000
-2.6232 <s> EIGHT 0.0000
-2.6232 <s> END 0.0000
-2.6232 <s> END-OF-FILE 0.0000
-2.6232 <s> END-OF-LINE 0.0000
-2.6232 <s> END-OF-NEXT-SECTION 0.0000
-2.6232 <s> END-OF-PREVIOUS-SECTION 0.0000
-2.6232 <s> END-PARAGRAPH 0.0000
-2.6232 <s> END-SENTENCE 0.0000
-2.6232 <s> END-WORD 0.0000
-2.6232 <s> ESCAPE 0.0000
-2.6232 <s> FILE 0.0000
-2.6232 <s> FIND 0.0000
-2.6232 <s> FIND-AND-REPLACE 0.0000
-2.6232 <s> FIND-REVERSED 0.0000
-2.6232 <s> FIRST-CHARACTER 0.0000
-2.6232 <s> FIVE 0.0000
-2.6232 <s> FORCE-EDIT 0.0000
-2.6232 <s> FORCE-QUIT 0.0000
-2.6232 <s> FORCE-WRITE 0.0000
-2.6232 <s> FORCE-WRITE-QUIT 0.0000
-2.6232 <s> FORMAT 0.0000
-2.6232 <s> FORMAT-LINE 0.0000
-2.6232 <s> FOUR 0.0000
-2.6232 <s> FOXTROT 0.0000
-2.6232 <s> GLOBALLY 0.0000
-2.6232 <s> GOLF 0.0000
-2.6232 <s> GREP 0.0000
-2.6232 <s> H-TOP 0.0000
-2.6232 <s> HASH 0.0000
-2.6232 <s> HIGHEST 0.0000
-2.6232 <s> HOTEL 0.0000
-2.6232 <s> INDENT 0.0000
-2.6232 <s> INDENT-LINE 0.0000
-2.6232 <s> INDIA 0.0000
-2.6232 <s> INNER 0.0000
-2.3222 <s> INSERT 0.0000
-2.6232 <s> INSERT-BEFORE-LINE 0.0000
-2.6232 <s> JOIN 0.0000
-2.6232 <s> JULIETTE 0.0000
-2.6232 <s> JUMP-TO-MARK 0.0000
-2.6232 <s> KILO 0.0000
-2.6232 <s> L-S 0.0000
-2.6232 <s> LEFT 0.0000
-2.6232 <s> LEFT-BRACE 0.0000
-2.6232 <s> LEFT-BRACKET 0.0000
-2.6232 <s> LEFT-PAREN 0.0000
-2.6232 <s> LESS 0.0000
-2.6232 <s> LIMA 0.0000
-2.6232 <s> LINE 0.0000
-2.6232 <s> LIST-BUFFERS 0.0000
-2.6232 <s> LOWEST 0.0000
-2.6232 <s> MAN 0.0000
-2.6232 <s> MATCHING 0.0000
-2.6232 <s> MIDDLE 0.0000
-2.6232 <s> MIKE 0.0000
-2.6232 <s> NEXT 0.0000
-2.6232 <s> NINE 0.0000
-2.6232 <s> NOVEMBER 0.0000
-2.6232 <s> ONE 0.0000
-2.6232 <s> OPEN-ABOVE 0.0000
-2.6232 <s> OPEN-BELOW 0.0000
-2.6232 <s> OSCAR 0.0000
-2.6232 <s> P-S 0.0000
-2.6232 <s> P-W-D 0.0000
-2.6232 <s> PAPA 0.0000
-2.6232 <s> PARENS 0.0000
-2.6232 <s> PASTE 0.0000
-2.6232 <s> PERCENT 0.0000
-2.6232 <s> PIPE 0.0000
-2.6232 <s> PLAY-AGAIN 0.0000
-2.6232 <s> PLAY-MACRO 0.0000
-2.6232 <s> PREVIOUS 0.0000
-2.6232 <s> QUEBEC 0.0000
-2.6232 <s> QUIT 0.0000
-2.6232 <s> RECORD-MACRO 0.0000
-2.6232 <s> REDO 0.0000
-2.6232 <s> REPEATE 0.0000
-2.6232 <s> RETURN 0.0000
-2.6232 <s> RIGHT 0.0000
-2.6232 <s> RIGHT-BRACE 0.0000
-2.6232 <s> RIGHT-BRACKET 0.0000
-2.6232 <s> RIGHT-PAREN 0.0000
-2.6232 <s> ROMEO 0.0000
-2.6232 <s> SCROLL-BOTTOM 0.0000
-2.6232 <s> SCROLL-END 0.0000
-2.6232 <s> SCROLL-START 0.0000
-2.6232 <s> SCROLL-TOP 0.0000
-2.6232 <s> SEARCH 0.0000
-2.6232 <s> SEARCH-REVERSED 0.0000
-2.6232 <s> SED 0.0000
-2.6232 <s> SELECT 0.0000
-2.6232 <s> SELECT-BLOCK 0.0000
-2.6232 <s> SEMI-COLIN 0.0000
-2.6232 <s> SEVEN 0.0000
-2.6232 <s> SHELL 0.0000
-2.6232 <s> SIERRA 0.0000
-2.6232 <s> SIX 0.0000
-2.6232 <s> SPACE 0.0000
-2.6232 <s> STAR 0.0000
-2.6232 <s> START-OF-FILE 0.0000
-2.6232 <s> START-OF-LINE 0.0000
-2.6232 <s> START-OF-NEXT-SECTION 0.0000
-2.6232 <s> START-OF-PREVIOUS-SECTION 0.0000
-2.6232 <s> START-PARAGRAPH 0.0000
-2.6232 <s> START-SENTENCE 0.0000
-2.6232 <s> STOP-RECORDING 0.0000
-2.6232 <s> STOP-V-C-S 0.0000
-2.6232 <s> TACK 0.0000
-2.6232 <s> TANGO 0.0000
-2.6232 <s> THREE 0.0000
-2.6232 <s> TILDA 0.0000
-2.6232 <s> TILL 0.0000
-2.6232 <s> TILL-REVERSED 0.0000
-2.6232 <s> TOGGLE-CASE 0.0000
-2.6232 <s> TOP 0.0000
-2.6232 <s> TOUCH 0.0000
-2.6232 <s> TRIM 0.0000
-2.6232 <s> TWO 0.0000
-2.6232 <s> UNDERSCORE 0.0000
-2.6232 <s> UNDO 0.0000
-2.6232 <s> UNDO-LINE 0.0000
-2.6232 <s> UNIFORM 0.0000
-2.6232 <s> UNINDENT 0.0000
-2.6232 <s> UNINDENT-LINE 0.0000
-2.6232 <s> UP 0.0000
-2.6232 <s> UP-LINE 0.0000
-2.6232 <s> V-C-S 0.0000
-2.6232 <s> VICTOR 0.0000
-2.6232 <s> VISUAL 0.0000
-2.6232 <s> VISUAL-BLOCK 0.0000
-2.6232 <s> WHISKEY 0.0000
-2.6232 <s> WITH 0.0000
-2.6232 <s> WORD 0.0000
-2.6232 <s> WRITE 0.0000
-2.6232 <s> WRITE-QUIT 0.0000
-2.6232 <s> X-RAY 0.0000
-2.6232 <s> YANK 0.0000
-2.6232 <s> YANK-LINE 0.0000
-2.6232 <s> YANKEE 0.0000
-2.6232 <s> YEP 0.0000
-2.6232 <s> ZERO 0.0000
-2.6232 <s> ZULU 0.0000
-0.3010 AFTER </s> -0.3010
-0.3010 AFTER-LINE </s> -0.3010
-0.3010 AGAIN </s> -0.3010
-0.3010 ALPHA </s> -0.3010
-0.3010 AMPERSAND </s> -0.3010
-0.3010 AROUND </s> -0.3010
-0.3010 AT </s> -0.3010
-0.3010 AWK </s> -0.3010
-0.3010 BACK </s> -0.3010
-0.3010 BACK-WORD </s> -0.3010
-0.3010 BACKSPACE </s> -0.3010
-0.3010 BANG </s> -0.3010
-0.3010 BIG-WORD </s> -0.3010
-0.3010 BRACES </s> -0.3010
-0.3010 BRACKETS </s> -0.3010
-0.3010 BRAVO </s> -0.3010
-0.3010 BUFFER </s> -0.3010
-0.3010 C-D </s> -0.3010
-0.3010 CAP-ALPHA </s> -0.3010
-0.3010 CAP-BRAVO </s> -0.3010
-0.3010 CAP-CHARLIE </s> -0.3010
-0.3010 CAP-DELTA </s> -0.3010
-0.3010 CAP-ECHO </s> -0.3010
-0.3010 CAP-FOXTROT </s> -0.3010
-0.3010 CAP-GOLF </s> -0.3010
-0.3010 CAP-HOTEL </s> -0.3010
-0.3010 CAP-INDIA </s> -0.3010
-0.3010 CAP-JULIETTE </s> -0.3010
-0.3010 CAP-KILO </s> -0.3010
-0.3010 CAP-LIMA </s> -0.3010
-0.3010 CAP-MIKE </s> -0.3010
-0.3010 CAP-NOVEMBER </s> -0.3010
-0.3010 CAP-OSCAR </s> -0.3010
-0.3010 CAP-PAPA </s> -0.3010
-0.3010 CAP-QUEBEC </s> -0.3010
-0.3010 CAP-ROMEO </s> -0.3010
-0.3010 CAP-SIERRA </s> -0.3010
-0.3010 CAP-TANGO </s> -0.3010
-0.3010 CAP-UNIFORM </s> -0.3010
-0.3010 CAP-VICTOR </s> -0.3010
-0.3010 CAP-WHISKEY </s> -0.3010
-0.3010 CAP-X-RAY </s> -0.3010
-0.3010 CAP-YANKEE </s> -0.3010
-0.3010 CAP-ZULU </s> -0.3010
-0.3010 CAPS-LOCK </s> -0.3010
-0.3010 CARET </s> -0.3010
-0.3010 CHANGE </s> -0.3010
-0.3010 CHARLIE </s> -0.3010
-0.3010 CLOSE-BUFFER </s> -0.3010
-0.3010 COLIN </s> -0.3010
-0.3010 COLUMN </s> -0.3010
-0.3010 COMMA </s> -0.3010
-0.3010 COMMAND </s> -0.3010
-0.3010 DATE </s> -0.3010
-0.3010 DELETE </s> -0.3010
-0.3010 DELETE-CHAR </s> -0.3010
-0.3010 DELETE-LINE </s> -0.3010
-0.3010 DELTA </s> -0.3010
-0.3010 DICTATE </s> -0.3010
-0.3010 DOLLAR </s> -0.3010
-0.3010 DONE </s> -0.3010
-0.3010 DOT </s> -0.3010
-0.3010 DOWN </s> -0.3010
-0.3010 DOWN-LINE </s> -0.3010
-0.3010 ECHO </s> -0.3010
-0.3010 EDIT </s> -0.3010
-0.3010 EDITOR </s> -0.3010
-0.3010 EIGHT </s> -0.3010
-0.3010 END </s> -0.3010
-0.3010 END-OF-FILE </s> -0.3010
-0.3010 END-OF-LINE </s> -0.3010
-0.3010 END-OF-NEXT-SECTION </s> -0.3010
-0.3010 END-OF-PREVIOUS-SECTION </s> -0.3010
-0.3010 END-PARAGRAPH </s> -0.3010
-0.3010 END-SENTENCE </s> -0.3010
-0.3010 END-WORD </s> -0.3010
-0.3010 ESCAPE </s> -0.3010
-0.3010 FILE </s> -0.3010
-0.3010 FIND </s> -0.3010
-0.3010 FIND-AND-REPLACE </s> -0.3010
-0.3010 FIND-REVERSED </s> -0.3010
-0.3010 FIRST-CHARACTER </s> -0.3010
-0.3010 FIVE </s> -0.3010
-0.3010 FORCE-EDIT </s> -0.3010
-0.3010 FORCE-QUIT </s> -0.3010
-0.3010 FORCE-WRITE </s> -0.3010
-0.3010 FORCE-WRITE-QUIT </s> -0.3010
-0.3010 FORMAT </s> -0.3010
-0.3010 FORMAT-LINE </s> -0.3010
-0.3010 FOUR </s> -0.3010
-0.3010 FOXTROT </s> -0.3010
-0.3010 GLOBALLY </s> -0.3010
-0.3010 GOLF </s> -0.3010
-0.3010 GREP </s> -0.3010
-0.3010 H-TOP </s> -0.3010
-0.3010 HASH </s> -0.3010
-0.3010 HIGHEST </s> -0.3010
-0.3010 HOTEL </s> -0.3010
-0.3010 INDENT </s> -0.3010
-0.3010 INDENT-LINE </s> -0.3010
-0.3010 INDIA </s> -0.3010
-0.3010 INNER </s> -0.3010
-0.3010 INSERT </s> -0.3010
-0.3010 INSERT-BEFORE-LINE </s> -0.3010
-0.3010 JOIN </s> -0.3010
-0.3010 JULIETTE </s> -0.3010
-0.3010 JUMP-TO-MARK </s> -0.3010
-0.3010 KILO </s> -0.3010
-0.3010 L-S </s> -0.3010
-0.3010 LEFT </s> -0.3010
-0.3010 LEFT-BRACE </s> -0.3010
-0.3010 LEFT-BRACKET </s> -0.3010
-0.3010 LEFT-PAREN </s> -0.3010
-0.3010 LESS </s> -0.3010
-0.3010 LIMA </s> -0.3010
-0.3010 LINE </s> -0.3010
-0.3010 LIST-BUFFERS </s> -0.3010
-0.3010 LOWEST </s> -0.3010
-0.3010 MAN </s> -0.3010
-0.3010 MATCHING </s> -0.3010
-0.3010 MIDDLE </s> -0.3010
-0.3010 MIKE </s> -0.3010
-0.3010 NEXT </s> -0.3010
-0.3010 NINE </s> -0.3010
-0.3010 NOVEMBER </s> -0.3010
-0.3010 ONE </s> -0.3010
-0.3010 OPEN-ABOVE </s> -0.3010
-0.3010 OPEN-BELOW </s> -0.3010
-0.3010 OSCAR </s> -0.3010
-0.3010 P-S </s> -0.3010
-0.3010 P-W-D </s> -0.3010
-0.3010 PAPA </s> -0.3010
-0.3010 PARENS </s> -0.3010
-0.3010 PASTE </s> -0.3010
-0.3010 PERCENT </s> -0.3010
-0.3010 PIPE </s> -0.3010
-0.3010 PLAY-AGAIN </s> -0.3010
-0.3010 PLAY-MACRO </s> -0.3010
-0.3010 PREVIOUS </s> -0.3010
-0.3010 QUEBEC </s> -0.3010
-0.3010 QUIT </s> -0.3010
-0.3010 RECORD-MACRO </s> -0.3010
-0.3010 REDO </s> -0.3010
-0.3010 REPEATE </s> -0.3010
-0.3010 RETURN </s> -0.3010
-0.3010 RIGHT </s> -0.3010
-0.3010 RIGHT-BRACE </s> -0.3010
-0.3010 RIGHT-BRACKET </s> -0.3010
-0.3010 RIGHT-PAREN </s> -0.3010
-0.3010 ROMEO </s> -0.3010
-0.3010 SCROLL-BOTTOM </s> -0.3010
-0.3010 SCROLL-END </s> -0.3010
-0.3010 SCROLL-START </s> -0.3010
-0.3010 SCROLL-TOP </s> -0.3010
-0.3010 SEARCH </s> -0.3010
-0.3010 SEARCH-REVERSED </s> -0.3010
-0.3010 SED </s> -0.3010
-0.3010 SELECT </s> -0.3010
-0.3010 SELECT-BLOCK </s> -0.3010
-0.3010 SEMI-COLIN </s> -0.3010
-0.3010 SEVEN </s> -0.3010
-0.3010 SHELL </s> -0.3010
-0.3010 SIERRA </s> -0.3010
-0.3010 SIX </s> -0.3010
-0.3010 SPACE </s> -0.3010
-0.3010 STAR </s> -0.3010
-0.3010 START-OF-FILE </s> -0.3010
-0.3010 START-OF-LINE </s> -0.3010
-0.3010 START-OF-NEXT-SECTION </s> -0.3010
-0.3010 START-OF-PREVIOUS-SECTION </s> -0.3010
-0.3010 START-PARAGRAPH </s> -0.3010
-0.3010 START-SENTENCE </s> -0.3010
-0.3010 STOP-RECORDING </s> -0.3010
-0.3010 STOP-V-C-S </s> -0.3010
-0.3010 TACK </s> -0.3010
-0.3010 TANGO </s> -0.3010
-0.3010 THREE </s> -0.3010
-0.3010 TILDA </s> -0.3010
-0.3010 TILL </s> -0.3010
-0.3010 TILL-REVERSED </s> -0.3010
-0.3010 TOGGLE-CASE </s> -0.3010
-0.3010 TOP </s> -0.3010
-0.3010 TOUCH </s> -0.3010
-0.3010 TRIM </s> -0.3010
-0.3010 TWO </s> -0.3010
-0.3010 UNDERSCORE </s> -0.3010
-0.3010 UNDO </s> -0.3010
-0.3010 UNDO-LINE </s> -0.3010
-0.3010 UNIFORM </s> -0.3010
-0.3010 UNINDENT </s> -0.3010
-0.3010 UNINDENT-LINE </s> -0.3010
-0.3010 UP </s> -0.3010
-0.3010 UP-LINE </s> -0.3010
-0.3010 V-C-S </s> -0.3010
-0.3010 VICTOR </s> -0.3010
-0.3010 VISUAL </s> -0.3010
-0.3010 VISUAL-BLOCK </s> -0.3010
-0.3010 WHISKEY </s> -0.3010
-0.3010 WITH </s> -0.3010
-0.3010 WORD </s> -0.3010
-0.3010 WRITE </s> -0.3010
-0.3010 WRITE-QUIT </s> -0.3010
-0.3010 X-RAY </s> -0.3010
-0.3010 YANK </s> -0.3010
-0.3010 YANK-LINE </s> -0.3010
-0.3010 YANKEE </s> -0.3010
-0.3010 YEP </s> -0.3010
-0.3010 ZERO </s> -0.3010
-0.3010 ZULU </s> -0.3010

\3-grams:
-0.3010 <s> AFTER </s>
-0.3010 <s> AFTER-LINE </s>
-0.3010 <s> AGAIN </s>
-0.3010 <s> ALPHA </s>
-0.3010 <s> AMPERSAND </s>
-0.3010 <s> AROUND </s>
-0.3010 <s> AT </s>
-0.3010 <s> AWK </s>
-0.3010 <s> BACK </s>
-0.3010 <s> BACK-WORD </s>
-0.3010 <s> BACKSPACE </s>
-0.3010 <s> BANG </s>
-0.3010 <s> BIG-WORD </s>
-0.3010 <s> BRACES </s>
-0.3010 <s> BRACKETS </s>
-0.3010 <s> BRAVO </s>
-0.3010 <s> BUFFER </s>
-0.3010 <s> C-D </s>
-0.3010 <s> CAP-ALPHA </s>
-0.3010 <s> CAP-BRAVO </s>
-0.3010 <s> CAP-CHARLIE </s>
-0.3010 <s> CAP-DELTA </s>
-0.3010 <s> CAP-ECHO </s>
-0.3010 <s> CAP-FOXTROT </s>
-0.3010 <s> CAP-GOLF </s>
-0.3010 <s> CAP-HOTEL </s>
-0.3010 <s> CAP-INDIA </s>
-0.3010 <s> CAP-JULIETTE </s>
-0.3010 <s> CAP-KILO </s>
-0.3010 <s> CAP-LIMA </s>
-0.3010 <s> CAP-MIKE </s>
-0.3010 <s> CAP-NOVEMBER </s>
-0.3010 <s> CAP-OSCAR </s>
-0.3010 <s> CAP-PAPA </s>
-0.3010 <s> CAP-QUEBEC </s>
-0.3010 <s> CAP-ROMEO </s>
-0.3010 <s> CAP-SIERRA </s>
-0.3010 <s> CAP-TANGO </s>
-0.3010 <s> CAP-UNIFORM </s>
-0.3010 <s> CAP-VICTOR </s>
-0.3010 <s> CAP-WHISKEY </s>
-0.3010 <s> CAP-X-RAY </s>
-0.3010 <s> CAP-YANKEE </s>
-0.3010 <s> CAP-ZULU </s>
-0.3010 <s> CAPS-LOCK </s>
-0.3010 <s> CARET </s>
-0.3010 <s> CHANGE </s>
-0.3010 <s> CHARLIE </s>
-0.3010 <s> CLOSE-BUFFER </s>
-0.3010 <s> COLIN </s>
-0.3010 <s> COLUMN </s>
-0.3010 <s> COMMA </s>
-0.3010 <s> COMMAND </s>
-0.3010 <s> DATE </s>
-0.3010 <s> DELETE </s>
-0.3010 <s> DELETE-CHAR </s>
-0.3010 <s> DELETE-LINE </s>
-0.3010 <s> DELTA </s>
-0.3010 <s> DICTATE </s>
-0.3010 <s> DOLLAR </s>
-0.3010 <s> DONE </s>
-0.3010 <s> DOT </s>
-0.3010 <s> DOWN </s>
-0.3010 <s> DOWN-LINE </s>
-0.3010 <s> ECHO </s>
-0.3010 <s> EDIT </s>
-0.3010 <s> EDITOR </s>
-0.3010 <s> EIGHT </s>
-0.3010 <s> END </s>
-0.3010 <s> END-OF-FILE </s>
-0.3010 <s> END-OF-LINE </s>
-0.3010 <s> END-OF-NEXT-SECTION </s>
-0.3010 <s> END-OF-PREVIOUS-SECTION </s>
-0.3010 <s> END-PARAGRAPH </s>
-0.3010 <s> END-SENTENCE </s>
-0.3010 <s> END-WORD </s>
-0.3010 <s> ESCAPE </s>
-0.3010 <s> FILE </s>
-0.3010 <s> FIND </s>
-0.3010 <s> FIND-AND-REPLACE </s>
-0.3010 <s> FIND-REVERSED </s>
-0.3010 <s> FIRST-CHARACTER </s>
-0.3010 <s> FIVE </s>
-0.3010 <s> FORCE-EDIT </s>
-0.3010 <s> FORCE-QUIT </s>
-0.3010 <s> FORCE-WRITE </s>
-0.3010 <s> FORCE-WRITE-QUIT </s>
-0.3010 <s> FORMAT </s>
-0.3010 <s> FORMAT-LINE </s>
-0.3010 <s> FOUR </s>
-0.3010 <s> FOXTROT </s>
-0.3010 <s> GLOBALLY </s>
-0.3010 <s> GOLF </s>
-0.3010 <s> GREP </s>
-0.3010 <s> H-TOP </s>
-0.3010 <s> HASH </s>
-0.3010 <s> HIGHEST </s>
-0.3010 <s> HOTEL </s>
-0.3010 <s> INDENT </s>
-0.3010 <s> INDENT-LINE </s>
-0.3010 <s> INDIA </s>
-0.3010 <s> INNER </s>
-0.3010 <s> INSERT </s>
-0.3010 <s> INSERT-BEFORE-LINE </s>
-0.3010 <s> JOIN </s>
-0.3010 <s> JULIETTE </s>
-0.3010 <s> JUMP-TO-MARK </s>
-0.3010 <s> KILO </s>
-0.3010 <s> L-S </s>
-0.3010 <s> LEFT </s>
-0.3010 <s> LEFT-BRACE </s>
-0.3010 <s> LEFT-BRACKET </s>
-0.3010 <s> LEFT-PAREN </s>
-0.3010 <s> LESS </s>
-0.3010 <s> LIMA </s>
-0.3010 <s> LINE </s>
-0.3010 <s> LIST-BUFFERS </s>
-0.3010 <s> LOWEST </s>
-0.3010 <s> MAN </s>
-0.3010 <s> MATCHING </s>
-0.3010 <s> MIDDLE </s>
-0.3010 <s> MIKE </s>
-0.3010 <s> NEXT </s>
-0.3010 <s> NINE </s>
-0.3010 <s> NOVEMBER </s>
-0.3010 <s> ONE </s>
-0.3010 <s> OPEN-ABOVE </s>
-0.3010 <s> OPEN-BELOW </s>
-0.3010 <s> OSCAR </s>
-0.3010 <s> P-S </s>
-0.3010 <s> P-W-D </s>
-0.3010 <s> PAPA </s>
-0.3010 <s> PARENS </s>
-0.3010 <s> PASTE </s>
-0.3010 <s> PERCENT </s>
-0.3010 <s> PIPE </s>
-0.3010 <s> PLAY-AGAIN </s>
-0.3010 <s> PLAY-MACRO </s>
-0.3010 <s> PREVIOUS </s>
-0.3010 <s> QUEBEC </s>
-0.3010 <s> QUIT </s>
-0.3010 <s> RECORD-MACRO </s>
-0.3010 <s> REDO </s>
-0.3010 <s> REPEATE </s>
-0.3010 <s> RETURN </s>
-0.3010 <s> RIGHT </s>
-0.3010 <s> RIGHT-BRACE </s>
-0.3010 <s> RIGHT-BRACKET </s>
-0.3010 <s> RIGHT-PAREN </s>
-0.3010 <s> ROMEO </s>
-0.3010 <s> SCROLL-BOTTOM </s>
-0.3010 <s> SCROLL-END </s>
-0.3010 <s> SCROLL-START </s>
-0.3010 <s> SCROLL-TOP </s>
-0.3010 <s> SEARCH </s>
-0.3010 <s> SEARCH-REVERSED </s>
-0.3010 <s> SED </s>
-0.3010 <s> SELECT </s>
-0.3010 <s> SELECT-BLOCK </s>
-0.3010 <s> SEMI-COLIN </s>
-0.3010 <s> SEVEN </s>
-0.3010 <s> SHELL </s>
-0.3010 <s> SIERRA </s>
-0.3010 <s> SIX </s>
-0.3010 <s> SPACE </s>
-0.3010 <s> STAR </s>
-0.3010 <s> START-OF-FILE </s>
-0.3010 <s> START-OF-LINE </s>
-0.3010 <s> START-OF-NEXT-SECTION </s>
-0.3010 <s> START-OF-PREVIOUS-SECTION </s>
-0.3010 <s> START-PARAGRAPH </s>
-0.3010 <s> START-SENTENCE </s>
-0.3010 <s> STOP-RECORDING </s>
-0.3010 <s> STOP-V-C-S </s>
-0.3010 <s> TACK </s>
-0.3010 <s> TANGO </s>
-0.3010 <s> THREE </s>
-0.3010 <s> TILDA </s>
-0.3010 <s> TILL </s>
-0.3010 <s> TILL-REVERSED </s>
-0.3010 <s> TOGGLE-CASE </s>
-0.3010 <s> TOP </s>
-0.3010 <s> TOUCH </s>
-0.3010 <s> TRIM </s>
-0.3010 <s> TWO </s>
-0.3010 <s> UNDERSCORE </s>
-0.3010 <s> UNDO </s>
-0.3010 <s> UNDO-LINE </s>
-0.3010 <s> UNIFORM </s>
-0.3010 <s> UNINDENT </s>
-0.3010 <s> UNINDENT-LINE </s>
-0.3010 <s> UP </s>
-0.3010 <s> UP-LINE </s>
-0.3010 <s> V-C-S </s>
-0.3010 <s> VICTOR </s>
-0.3010 <s> VISUAL </s>
-0.3010 <s> VISUAL-BLOCK </s>
-0.3010 <s> WHISKEY </s>
-0.3010 <s> WITH </s>
-0.3010 <s> WORD </s>
-0.3010 <s> WRITE </s>
-0.3010 <s> WRITE-QUIT </s>
-0.3010 <s> X-RAY </s>
-0.3010 <s> YANK </s>
-0.3010 <s> YANK-LINE </s>
-0.3010 <s> YANKEE </s>
-0.3010 <s> YEP </s>
-0.3010 <s> ZERO </s>
-0.3010 <s> ZULU </s>

\end\
